solver_type L2R_L2LOSS_SVC
nr_class 2
label 1 -1
nr_feature 116
bias 1
w
2.61145521858572e-05 
0.0002824022237937296 
-0.002141919676432756 
-0.03682664213590398 
0.07529448164760466 
-0.07099773258034263 
0.0341336148258717 
0.1121747406761486 
0.08654179902812681 
0.02700015949642452 
0.03191930698946213 
0.1066336699263146 
0.01497246299014118 
-0.05867580990374426 
-0.05988148773208089 
-0.09022240740350911 
0.04893187860899419 
-0.04612833602899397 
0.01840381482170878 
-0.032993601868537 
0.1030869882085049 
-0.07632367042368639 
0.06148392017141513 
-0.1093079520006339 
0.09947857828366963 
0.003776986901050553 
0 
-0.1006745380181563 
-0.01279614176948258 
0.07908865669496666 
0.04874360998040554 
0.06472095520396579 
0.02686996188852512 
0.08129827877139119 
0.1102733711582354 
0.0596918024186729 
-0.06442881004429876 
0.02362138150738397 
0.136821956791738 
0.09354456100445693 
-0.01072980448449637 
-0.1430954234689579 
0.05859226774863824 
0.02991399361809877 
0.1232560971307144 
-0.04953262556115281 
0.045820309794193 
-0.02952779582394097 
-0.09569402187857391 
-0.008109669265858405 
0.09996590915559281 
0.009017008280742098 
0.04112501068541951 
0.01465211218209846 
-0.08979802119417782 
-0.1396945205646599 
0.01480530803410094 
0.008195946613244461 
-0.05968748333163426 
0.2233228729160547 
-0.1620521146236074 
-0.04909281179925026 
0.02978667046880225 
-0.1811391389037537 
-0.007450965995578409 
0.004867702488421275 
0.04869685251114287 
-0.06862403627480226 
-0.08612192717648054 
0.121041554663977 
0.03729972602108068 
-0.06943732966335979 
0.09042426481205408 
0.05994950498023614 
-0.07931100572797495 
-0.0009912001733331983 
-0.07726626045440567 
0.10876448859955 
-0.0131344605970202 
-0.05806452365444672 
-0.01092375982983073 
-0.02895932504195951 
-0.1561355842293518 
0.01228645110100599 
-0.04736475069617146 
0.0611324928215338 
0.07788493094084582 
0.02970060573771261 
-0.05521218612581812 
0.0485783684625453 
0.03428986812079079 
-0.06569200046093085 
0.03822719041410492 
-0.1936881861489849 
-0.05548384612839634 
0.01438970531678578 
0.05759767465470455 
0.02357010085362417 
0.1082945949260461 
-0.06281239555670928 
0.0004203546366346271 
-0.007543413396995654 
-0.1156278335052311 
-0.04045707983427238 
0.1053716732634748 
0.1843239796825925 
7.387455519790244e-05 
-0.02368381197895525 
-0.144987082465409 
-0.09791934391558262 
0 
-0.0003428108725952006 
0.04518651541990872 
-0.08367540794931495 
-0.06504303937987765 
-0.09356214306656462 
0.05443119582291409 
